<?xml version="1.0"?>
<opencv_storage>
<stage9>
  <maxWeakCount>7</maxWeakCount>
  <stageThreshold>-1.1732766628265381e+00</stageThreshold>
  <weakClassifiers>
    <_>
      <internalNodes>
        0 -1 187334 1604179839 -14708583 -1838738722 -681624129
        -91616513 -150988405 -560079873 -270849</internalNodes>
      <leafValues>
        -6.8165516853332520e-01 4.3585184216499329e-01</leafValues></_>
    <_>
      <internalNodes>
        0 -1 562762 -33570817 -1320163665 -918193769 -42470926 -70275078
        -74985502 1403517951 -807413299</internalNodes>
      <leafValues>
        -5.9548091888427734e-01 3.8295245170593262e-01</leafValues></_>
    <_>
      <internalNodes>
        0 -1 37224 1222045414 2146891442 -1275043842 -192577826
        -627376414 932256072 -559883614 -273941363</internalNodes>
      <leafValues>
        -6.6303813457489014e-01 2.8417691588401794e-01</leafValues></_>
    <_>
      <internalNodes>
        0 -1 73574 52440 -578806644 166440957 1566540815 -1077350724
        -1102285210 -880742769 -1895233912</internalNodes>
      <leafValues>
        -3.6171004176139832e-01 5.3352493047714233e-01</leafValues></_>
    <_>
      <internalNodes>
        0 -1 119003 2031957343 -1118514730 153038738 800069360
        1344702583 -405401362 -359925777 -1468033289</internalNodes>
      <leafValues>
        -5.9658336639404297e-01 3.1487432122230530e-01</leafValues></_>
    <_>
      <internalNodes>
        0 -1 618675 -575819526 220835496 -16842777 -671219727 -66273622
        -1886852600 1415554491 -681922945</internalNodes>
      <leafValues>
        -4.1628444194793701e-01 4.7389367222785950e-01</leafValues></_>
    <_>
      <internalNodes>
        0 -1 344360 -785667052 -740745199 -1879043056 1880214046
        -653379556 -1199243264 1107984521 1398484694</internalNodes>
      <leafValues>
        -5.2262669801712036e-01 3.5606223344802856e-01</leafValues></_></weakClassifiers></stage9>
</opencv_storage>
