<?xml version="1.0"?>
<opencv_storage>
<stage5>
  <maxWeakCount>6</maxWeakCount>
  <stageThreshold>-1.3689455986022949e+00</stageThreshold>
  <weakClassifiers>
    <_>
      <internalNodes>
        0 -1 210464 -674234401 -10487329 -796278249 -140510753
        -158080306 -588873530 -70805077 -83165217</internalNodes>
      <leafValues>
        -7.0483326911926270e-01 5.5158096551895142e-01</leafValues></_>
    <_>
      <internalNodes>
        0 -1 594325 -35684673 -136346945 1414240347 -673333345
        -594752533 -813135679 393581027 2136994751</internalNodes>
      <leafValues>
        -6.4869415760040283e-01 4.5995166897773743e-01</leafValues></_>
    <_>
      <internalNodes>
        0 -1 381058 -574112772 -673369890 -1761603074 1374438826
        -389971974 -75300453 1805251784 -548409397</internalNodes>
      <leafValues>
        -5.8597582578659058e-01 4.3424287438392639e-01</leafValues></_>
    <_>
      <internalNodes>
        0 -1 262264 1476808898 998637764 -805236714 -770342435
        -2004827584 34242560 -1877361958 -217591625</internalNodes>
      <leafValues>
        -5.3179538249969482e-01 4.6905428171157837e-01</leafValues></_>
    <_>
      <internalNodes>
        0 -1 173445 41943249 -1856983831 251541469 1359691290 171019440
        -1290181238 -737232449 260707752</internalNodes>
      <leafValues>
        -4.0898948907852173e-01 5.9933531284332275e-01</leafValues></_>
    <_>
      <internalNodes>
        0 -1 585012 1778367378 -1410142721 -536875213 -1519140885
        -1469257286 -889000440 929538779 1600110363</internalNodes>
      <leafValues>
        -4.3084323406219482e-01 5.1049280166625977e-01</leafValues></_></weakClassifiers></stage5>
</opencv_storage>
