<?xml version="1.0"?>
<opencv_storage>
<stage6>
  <maxWeakCount>7</maxWeakCount>
  <stageThreshold>-1.6451171636581421e+00</stageThreshold>
  <weakClassifiers>
    <_>
      <internalNodes>
        0 -1 62261 -2097665 -36207113 -574628353 -881166 -2096527409
        -105132833 -3162113 -1</internalNodes>
      <leafValues>
        -6.8572849035263062e-01 5.9032905101776123e-01</leafValues></_>
    <_>
      <internalNodes>
        0 -1 631468 -77861909 -639641568 -1862102597 -540028709
        -826090550 -894844664 1359065555 -605036065</internalNodes>
      <leafValues>
        -4.9346137046813965e-01 5.6746619939804077e-01</leafValues></_>
    <_>
      <internalNodes>
        0 -1 164617 -690016068 -203614130 -1878330734 1394169229
        -244520305 -636977150 1674240714 1594542811</internalNodes>
      <leafValues>
        -6.2032568454742432e-01 4.1570094227790833e-01</leafValues></_>
    <_>
      <internalNodes>
        0 -1 90346 144 -604418296 195038877 1503628455 691803895
        -1136288806 106171899 -1891021924</internalNodes>
      <leafValues>
        -4.2827019095420837e-01 5.3092545270919800e-01</leafValues></_>
    <_>
      <internalNodes>
        0 -1 42420 -1105349398 -69221354 -737514434 -388806053
        -100418806 1536733219 2031268053 -2503093</internalNodes>
      <leafValues>
        -6.5462702512741089e-01 3.8598427176475525e-01</leafValues></_>
    <_>
      <internalNodes>
        0 -1 568028 320020752 893632700 -1962851043 1539379203
        -1694370306 -1840201600 167813915 521667598</internalNodes>
      <leafValues>
        -6.2169057130813599e-01 3.1043532490730286e-01</leafValues></_>
    <_>
      <internalNodes>
        0 -1 609814 1049493425 -285294730 -269574155 -268439577
        -1534223382 -1953521792 1393947563 1598816158</internalNodes>
      <leafValues>
        -4.5309805870056152e-01 4.7915834188461304e-01</leafValues></_></weakClassifiers></stage6>
</opencv_storage>
