<?xml version="1.0"?>
<opencv_storage>
<stage10>
  <maxWeakCount>7</maxWeakCount>
  <stageThreshold>-1.1965665817260742e+00</stageThreshold>
  <weakClassifiers>
    <_>
      <internalNodes>
        0 -1 508703 -34603017 -1630570081 -1349956098 -10498081
        -1142166609 -91584273 -343415049 -4210689</internalNodes>
      <leafValues>
        -6.8501061201095581e-01 3.3764484524726868e-01</leafValues></_>
    <_>
      <internalNodes>
        0 -1 315606 -887647233 2131837377 460262542 -48129761 229454335
        -210136389 -1930355492 -1665532139</internalNodes>
      <leafValues>
        -7.1393400430679321e-01 2.7278894186019897e-01</leafValues></_>
    <_>
      <internalNodes>
        0 -1 641293 -1136665352 -2105064960 -1879015271 -184070131
        -1198620020 -796295039 -233905153 -1152690087</internalNodes>
      <leafValues>
        -4.9982017278671265e-01 4.0071058273315430e-01</leafValues></_>
    <_>
      <internalNodes>
        0 -1 205047 68157456 1431326976 823135547 1372819489 -1908362872
        -1614772200 1530921230 453519384</internalNodes>
      <leafValues>
        -5.4372644424438477e-01 4.1137599945068359e-01</leafValues></_>
    <_>
      <internalNodes>
        0 -1 610729 1606388666 -69030238 -805470671 -1921024526
        -699413558 -1962930294 1933964719 1600122811</internalNodes>
      <leafValues>
        -4.0991729497909546e-01 4.8373663425445557e-01</leafValues></_>
    <_>
      <internalNodes>
        0 -1 269 -61409422 -112097902 202964442 1925955681 -1759629909
        -15283747 -1962435730 -1142191121</internalNodes>
      <leafValues>
        -6.0988557338714600e-01 3.2958713173866272e-01</leafValues></_>
    <_>
      <internalNodes>
        0 -1 580682 285737200 2011999924 575280085 1364284186 -547595526
        1215706996 39660986 -1152645172</internalNodes>
      <leafValues>
        -4.1090413928031921e-01 4.7154286503791809e-01</leafValues></_></weakClassifiers></stage10>
</opencv_storage>
