<?xml version="1.0"?>
<opencv_storage>
<stage13>
  <maxWeakCount>10</maxWeakCount>
  <stageThreshold>-1.2667883634567261e+00</stageThreshold>
  <weakClassifiers>
    <_>
      <internalNodes>
        0 -1 113768 -169877554 -8415717 -587133610 2015305087
        -1828617318 -15850581 -3675658 -262153</internalNodes>
      <leafValues>
        -6.5349543094635010e-01 2.3149293661117554e-01</leafValues></_>
    <_>
      <internalNodes>
        0 -1 596749 -732454214 -896695648 287310465 -8029696 -842076753
        218932364 1347138539 1594878859</internalNodes>
      <leafValues>
        -4.7546014189720154e-01 4.0293464064598083e-01</leafValues></_>
    <_>
      <internalNodes>
        0 -1 157298 337645713 421398768 972755449 487941427 -1658711831
        -1619069025 143445163 -279138611</internalNodes>
      <leafValues>
        -2.8925859928131104e-01 5.8543908596038818e-01</leafValues></_>
    <_>
      <internalNodes>
        0 -1 631079 -146414783 -679230399 -2009067455 -539508303
        1879695748 -1958639614 627441 -1088424677</internalNodes>
      <leafValues>
        -5.4677021503448486e-01 3.0861583352088928e-01</leafValues></_>
    <_>
      <internalNodes>
        0 -1 338663 1266154184 1409220756 -1820114920 -69500257
        -623918888 1335820416 -1050963300 -213245556</internalNodes>
      <leafValues>
        -6.2699282169342041e-01 2.5767630338668823e-01</leafValues></_>
    <_>
      <internalNodes>
        0 -1 108385 -1994895143 -577207984 268963999 224231569
        -671044879 -118314878 19008119 263454908</internalNodes>
      <leafValues>
        -3.8786292076110840e-01 4.0659257769584656e-01</leafValues></_>
    <_>
      <internalNodes>
        0 -1 65257 -276850550 -3938610 1853685375 -779223649 -553926932
        -547781620 520043763 1582283855</internalNodes>
      <leafValues>
        -3.4385108947753906e-01 4.6088182926177979e-01</leafValues></_>
    <_>
      <internalNodes>
        0 -1 304471 1125351231 1233260571 -1836667046 1508315421
        2039198358 -658337232 1040305756 -659071819</internalNodes>
      <leafValues>
        -5.3766179084777832e-01 2.7795922756195068e-01</leafValues></_>
    <_>
      <internalNodes>
        0 -1 140953 1288234122 -10621778 -570958604 456785592 1022324724
        -289341731 494923756 -1321018</internalNodes>
      <leafValues>
        -3.4659922122955322e-01 4.8913866281509399e-01</leafValues></_>
    <_>
      <internalNodes>
        0 -1 618677 1199180698 597349536 302084677 1444233985 1736618536
        -1350385406 -2130328677 -619713597</internalNodes>
      <leafValues>
        -4.0697512030601501e-01 4.0513581037521362e-01</leafValues></_></weakClassifiers></stage13>
</opencv_storage>
