<?xml version="1.0"?>
<opencv_storage>
<stage7>
  <maxWeakCount>7</maxWeakCount>
  <stageThreshold>-1.3038803339004517e+00</stageThreshold>
  <weakClassifiers>
    <_>
      <internalNodes>
        0 -1 351696 -47195137 -79448809 -1088553058 -11281417 -671876097
        -81282077 -658506500 -268353</internalNodes>
      <leafValues>
        -7.4792408943176270e-01 4.1951489448547363e-01</leafValues></_>
    <_>
      <internalNodes>
        0 -1 22690 -564271361 -580971365 -586280326 1348176527
        -1432636825 -833781446 -304489766 -540022034</internalNodes>
      <leafValues>
        -5.9794193506240845e-01 3.9983302354812622e-01</leafValues></_>
    <_>
      <internalNodes>
        0 -1 628445 -3408646 -1605724 -824443183 2133978998 -12911188
        -947405108 -462113386 -6326581</internalNodes>
      <leafValues>
        -4.4371461868286133e-01 5.1023328304290771e-01</leafValues></_>
    <_>
      <internalNodes>
        0 -1 448931 1582778552 2009481354 -583237770 1372754050
        1946349514 282066953 -491524084 1095582175</internalNodes>
      <leafValues>
        -5.6362402439117432e-01 3.5083049535751343e-01</leafValues></_>
    <_>
      <internalNodes>
        0 -1 439809 470356152 1560281232 134218013 357899292 -1465861442
        -1165326200 268438251 134744093</internalNodes>
      <leafValues>
        -4.6358919143676758e-01 4.5409902930259705e-01</leafValues></_>
    <_>
      <internalNodes>
        0 -1 199945 1397694438 -1946480421 -1658961974 1416681682
        1904862623 -369418217 1749517610 -1793</internalNodes>
      <leafValues>
        -7.1382558345794678e-01 2.4500617384910583e-01</leafValues></_>
    <_>
      <internalNodes>
        0 -1 217751 2094981696 -552402740 8435786 326758511 -1189478400
        1342947328 1207996449 324511947</internalNodes>
      <leafValues>
        -5.1069861650466919e-01 3.9459642767906189e-01</leafValues></_></weakClassifiers></stage7>
</opencv_storage>
