<?xml version="1.0"?>
<opencv_storage>
<stage11>
  <maxWeakCount>9</maxWeakCount>
  <stageThreshold>-1.2048608064651489e+00</stageThreshold>
  <weakClassifiers>
    <_>
      <internalNodes>
        0 -1 628433 -10751233 1366286988 -1744727979 -205131000
        -2087743350 1091109504 -1282677781 -586165783</internalNodes>
      <leafValues>
        -6.2884229421615601e-01 3.3788007497787476e-01</leafValues></_>
    <_>
      <internalNodes>
        0 -1 632436 -236470598 -1045779808 1845489649 1912307105
        -1978795094 -1962295518 1460663279 -11534341</internalNodes>
      <leafValues>
        -3.7990310788154602e-01 5.4122644662857056e-01</leafValues></_>
    <_>
      <internalNodes>
        0 -1 427035 1229567351 -251591650 486641438 31213326 1897135098
        -1991172047 271652268 -1349522597</internalNodes>
      <leafValues>
        -5.0955140590667725e-01 3.6924621462821960e-01</leafValues></_>
    <_>
      <internalNodes>
        0 -1 395889 268505336 1565611216 387055711 1976768667 973142241
        -1996258920 704683002 390007194</internalNodes>
      <leafValues>
        -5.1543295383453369e-01 3.8290235400199890e-01</leafValues></_>
    <_>
      <internalNodes>
        0 -1 8424 -257 -539539442 -1098973473 1364319995 -8537950
        -834188212 -41363713 -548405617</internalNodes>
      <leafValues>
        -2.9336154460906982e-01 6.2346220016479492e-01</leafValues></_>
    <_>
      <internalNodes>
        0 -1 37865 -966381988 -169880999 1219514869 -83287607
        -1884031816 -1416248936 -76870967 -542168372</internalNodes>
      <leafValues>
        -4.1514500975608826e-01 4.0438419580459595e-01</leafValues></_>
    <_>
      <internalNodes>
        0 -1 533832 -762372270 -1630959427 -1040079396 -513047393
        -7804230 -602356598 1394725874 -393281717</internalNodes>
      <leafValues>
        -6.0894656181335449e-01 3.0490010976791382e-01</leafValues></_>
    <_>
      <internalNodes>
        0 -1 607 -594005926 -611835884 -1056960384 491438298 -687651698
        -1173878626 -905913638 33706539</internalNodes>
      <leafValues>
        -7.7392536401748657e-01 1.8660843372344971e-01</leafValues></_>
    <_>
      <internalNodes>
        0 -1 416554 -624909992 622268891 -1727952778 487686411
        1493233840 -1072484277 403213372 1163919896</internalNodes>
      <leafValues>
        -6.0660266876220703e-01 2.6138678193092346e-01</leafValues></_></weakClassifiers></stage11>
</opencv_storage>
