<?xml version="1.0"?>
<opencv_storage>
<stage4>
  <maxWeakCount>11</maxWeakCount>
  <stageThreshold>-1.6986850500106812e+00</stageThreshold>
  <weakClassifiers>
    <_>
      <internalNodes>
        0 -1 228702 322376159 -142794249 427655165 -44204705 -1196441925
        -57345 -1073754113 -61989</internalNodes>
      <leafValues>
        -5.5266112089157104e-01 5.7361602783203125e-01</leafValues></_>
    <_>
      <internalNodes>
        0 -1 205317 -7798788 -268449452 31398255 -1612216161 705639915
        -1646373191 -638632037 -304098369</internalNodes>
      <leafValues>
        -5.6740224361419678e-01 3.8474479317665100e-01</leafValues></_>
    <_>
      <internalNodes>
        0 -1 572856 1033912025 -100931848 2130078353 2104453739
        394175386 -1365870614 -1250103909 -1186971464</internalNodes>
      <leafValues>
        -3.9266377687454224e-01 4.5457965135574341e-01</leafValues></_>
    <_>
      <internalNodes>
        0 -1 574128 -10823464 -738109822 -333419908 1346448512
        1983418506 975055382 -2044462869 -560256801</internalNodes>
      <leafValues>
        -3.1681758165359497e-01 4.7281283140182495e-01</leafValues></_>
    <_>
      <internalNodes>
        0 -1 2811 -204808208 -1056882232 -884870352 1825952514
        1368039442 -1876819952 51441715 1712845655</internalNodes>
      <leafValues>
        -5.3490781784057617e-01 2.6232671737670898e-01</leafValues></_>
    <_>
      <internalNodes>
        0 -1 531129 453759194 -1761467004 2083267794 1360501858
        1147333258 46400711 -466580997 -801591072</internalNodes>
      <leafValues>
        -2.7499032020568848e-01 5.1612150669097900e-01</leafValues></_>
    <_>
      <internalNodes>
        0 -1 7533 430513246 -134905785 -82694202 206950987 864795073
        533930448 1888618998 706744873</internalNodes>
      <leafValues>
        -6.2918585538864136e-01 2.1241144835948944e-01</leafValues></_>
    <_>
      <internalNodes>
        0 -1 580329 1497546937 -872005501 562087 1365184528 -1054295878
        -1191051248 -1820147053 1394888840</internalNodes>
      <leafValues>
        -4.0214842557907104e-01 3.2740655541419983e-01</leafValues></_>
    <_>
      <internalNodes>
        0 -1 180993 -1074228712 1557627437 1623409603 781123969
        -803070455 -206864159 -393052317 -568471407</internalNodes>
      <leafValues>
        -6.3209205865859985e-01 2.3847232758998871e-01</leafValues></_>
    <_>
      <internalNodes>
        0 -1 161675 -1147452840 -1447641184 985571061 -635175314
        -1940233650 -1853991882 292996343 -1173699151</internalNodes>
      <leafValues>
        -3.0038365721702576e-01 4.9689826369285583e-01</leafValues></_>
    <_>
      <internalNodes>
        0 -1 157669 2141879455 -782102640 708340429 1307907745
        -1462705448 -2147200383 513463855 1551607027</internalNodes>
      <leafValues>
        -3.2974824309349060e-01 3.9517164230346680e-01</leafValues></_></weakClassifiers></stage4>
</opencv_storage>
