<?xml version="1.0"?>
<opencv_storage>
<stage2>
  <maxWeakCount>9</maxWeakCount>
  <stageThreshold>-1.4785205125808716e+00</stageThreshold>
  <weakClassifiers>
    <_>
      <internalNodes>
        0 -1 509751 -197124 -41962243 2005135263 -1050193 -71042049
        -5515029 -6292481 -1</internalNodes>
      <leafValues>
        -7.3347216844558716e-01 5.7568079233169556e-01</leafValues></_>
    <_>
      <internalNodes>
        0 -1 302845 433068025 -15105795 -1660907041 -716596835
        -795231493 -1145331570 -81540677 -80967592</internalNodes>
      <leafValues>
        -5.7381105422973633e-01 5.3109228610992432e-01</leafValues></_>
    <_>
      <internalNodes>
        0 -1 6506 1037615096 1062458840 -678863367 -270574243 454161398
        2130411719 2047081455 1574428615</internalNodes>
      <leafValues>
        -6.2530070543289185e-01 3.1828930974006653e-01</leafValues></_>
    <_>
      <internalNodes>
        0 -1 112437 -681315686 -885039072 1275935666 1937055378
        -789650422 34211664 -1828200269 -887363649</internalNodes>
      <leafValues>
        -3.1317460536956787e-01 5.2737307548522949e-01</leafValues></_>
    <_>
      <internalNodes>
        0 -1 124933 1056729580 -35947365 -686842033 -1358975046
        997592359 -1157701490 2128978615 -1552516429</internalNodes>
      <leafValues>
        -6.4356511831283569e-01 2.8618383407592773e-01</leafValues></_>
    <_>
      <internalNodes>
        0 -1 591982 -97138644 289507526 -1509899297 559679690 276850428
        -629112308 1787098699 509406895</internalNodes>
      <leafValues>
        -5.2038067579269409e-01 2.8010320663452148e-01</leafValues></_>
    <_>
      <internalNodes>
        0 -1 330730 983591145 1805909822 1610282623 2034612465
        -1262568706 -1940408340 1591500283 -1693974147</internalNodes>
      <leafValues>
        -3.1439498066902161e-01 4.9380788207054138e-01</leafValues></_>
    <_>
      <internalNodes>
        0 -1 159140 855645403 -1210166116 1971805550 -829446998
        1032304238 871039661 2074557214 1621949285</internalNodes>
      <leafValues>
        -6.3710880279541016e-01 2.4910299479961395e-01</leafValues></_>
    <_>
      <internalNodes>
        0 -1 610900 958070954 156453140 -2147397444 -796520176 679714826
        537397248 1915781312 1363189928</internalNodes>
      <leafValues>
        -5.8951723575592041e-01 2.6624304056167603e-01</leafValues></_></weakClassifiers></stage2>
</opencv_storage>
