<?xml version="1.0"?>
<opencv_storage>
<stage0>
  <maxWeakCount>6</maxWeakCount>
  <stageThreshold>-1.7649911642074585e+00</stageThreshold>
  <weakClassifiers>
    <_>
      <internalNodes>
        0 -1 44977 -1121429508 -2256423 -585105985 -565923 -1115013121
        -6563333 -1148519425 -1</internalNodes>
      <leafValues>
        -8.7090057134628296e-01 7.4287521839141846e-01</leafValues></_>
    <_>
      <internalNodes>
        0 -1 169537 1067744989 -537100615 2079129439 2101215229
        -536936449 -1073807396 -33689605 -1089993444</internalNodes>
      <leafValues>
        -5.8137243986129761e-01 7.2545862197875977e-01</leafValues></_>
    <_>
      <internalNodes>
        0 -1 348724 1069072380 -614474923 1569454255 -553657351
        -105906709 -1621366842 2145239039 -402683025</internalNodes>
      <leafValues>
        -5.7262599468231201e-01 4.7871029376983643e-01</leafValues></_>
    <_>
      <internalNodes>
        0 -1 444504 2133902844 2136412317 -586867513 -1080042075
        -89507073 -235951141 965180414 348007732</internalNodes>
      <leafValues>
        -5.7919687032699585e-01 3.5911625623703003e-01</leafValues></_>
    <_>
      <internalNodes>
        0 -1 261580 150995181 -2063593323 -2147460903 1476411536
        402657337 -1699206968 -1744790831 -1333751775</internalNodes>
      <leafValues>
        -4.7175073623657227e-01 3.8562297821044922e-01</leafValues></_>
    <_>
      <internalNodes>
        0 -1 61929 964696442 -1751178033 487708135 -317812321 2139237051
        859504819 -1282591874 2146251735</internalNodes>
      <leafValues>
        -5.3158843517303467e-01 3.7254229187965393e-01</leafValues></_></weakClassifiers></stage0>
</opencv_storage>
