<?xml version="1.0"?>
<opencv_storage>
<stage7>
  <maxWeakCount>12</maxWeakCount>
  <stageThreshold>-1.4259625673294067e+00</stageThreshold>
  <weakClassifiers>
    <_>
      <internalNodes>
        0 -1 327367 419582171 -539242352 89185759 2138903885 -1198804801
        -6614881 -342713665 -1145331557</internalNodes>
      <leafValues>
        -4.9435558915138245e-01 4.0101891756057739e-01</leafValues></_>
    <_>
      <internalNodes>
        0 -1 70635 -102303026 1432027202 1074286594 1363958794
        -802553846 310927520 1090732042 1929640458</internalNodes>
      <leafValues>
        -4.0620753169059753e-01 3.6300453543663025e-01</leafValues></_>
    <_>
      <internalNodes>
        0 -1 460137 1071404668 1006612495 -1060470141 1583833354
        1892673851 704891659 -485273269 -273695269</internalNodes>
      <leafValues>
        -7.4499225616455078e-01 1.9936779141426086e-01</leafValues></_>
    <_>
      <internalNodes>
        0 -1 107459 2124300994 -175108088 -2147212253 1097023639
        -1828394790 1879064608 -2130661101 1075033799</internalNodes>
      <leafValues>
        -5.0767630338668823e-01 2.6835289597511292e-01</leafValues></_>
    <_>
      <internalNodes>
        0 -1 330442 -1091219785 2045443837 -135755 2042980091 -419499312
        -587431940 2111305375 -1351865703</internalNodes>
      <leafValues>
        -3.2657828927040100e-01 4.2738461494445801e-01</leafValues></_>
    <_>
      <internalNodes>
        0 -1 204299 -78688038 -248889710 -1644147660 -495830464
        -147324904 -1339009782 -1021438254 -770667367</internalNodes>
      <leafValues>
        -3.2928109169006348e-01 4.0739428997039795e-01</leafValues></_>
    <_>
      <internalNodes>
        0 -1 532383 -1282819624 -1872852988 604181454 1057038617
        1914182356 701628579 208155426 38140343</internalNodes>
      <leafValues>
        -5.0710266828536987e-01 2.4319358170032501e-01</leafValues></_>
    <_>
      <internalNodes>
        0 -1 5424 -103848334 388215648 715767024 1397439442 -212934935
        -766309071 93430145 -803482999</internalNodes>
      <leafValues>
        -2.6024881005287170e-01 4.5775035023689270e-01</leafValues></_>
    <_>
      <internalNodes>
        0 -1 586136 -540342080 2065389020 -880228116 1367444121
        1111933166 698376576 -259864389 2047249931</internalNodes>
      <leafValues>
        -3.7936419248580933e-01 3.2959124445915222e-01</leafValues></_>
    <_>
      <internalNodes>
        0 -1 228712 -67216195 -1423473719 604209926 1653543693 151923739
        -1951596525 551428651 -821101075</internalNodes>
      <leafValues>
        -3.8544550538063049e-01 3.2574820518493652e-01</leafValues></_>
    <_>
      <internalNodes>
        0 -1 5563 1914668275 -589179010 353906141 428253650 298496489
        952141961 1468608917 1096414135</internalNodes>
      <leafValues>
        -3.9629623293876648e-01 3.2169631123542786e-01</leafValues></_>
    <_>
      <internalNodes>
        0 -1 334018 1406327938 1342316812 16777417 1837175177 956490994
        -1266480630 2034281118 5497731</internalNodes>
      <leafValues>
        -3.8202962279319763e-01 3.2491993904113770e-01</leafValues></_></weakClassifiers></stage7>
</opencv_storage>
