<?xml version="1.0"?>
<opencv_storage>
<stage1>
  <maxWeakCount>7</maxWeakCount>
  <stageThreshold>-1.8156270980834961e+00</stageThreshold>
  <weakClassifiers>
    <_>
      <internalNodes>
        0 -1 270818 834277887 -102788869 1029406687 -1107326499
        -1146439490 -88373077 -1149125633 -279665</internalNodes>
      <leafValues>
        -7.5216424465179443e-01 6.9022655487060547e-01</leafValues></_>
    <_>
      <internalNodes>
        0 -1 1386 -67830276 -2100777 -42862721 -2673 1072707834
        -70310481 -16811073 -8404993</internalNodes>
      <leafValues>
        -6.3898575305938721e-01 5.2528965473175049e-01</leafValues></_>
    <_>
      <internalNodes>
        0 -1 414638 454182108 -83033700 420533591 525144220 -1962238326
        -1702199144 -1425503302 -610772520</internalNodes>
      <leafValues>
        -4.8390585184097290e-01 5.6995362043380737e-01</leafValues></_>
    <_>
      <internalNodes>
        0 -1 162719 -1611915908 2013239037 -537044273 -1900617900
        -1411740810 -1545977701 2128301903 652147655</internalNodes>
      <leafValues>
        -6.7202681303024292e-01 2.5992968678474426e-01</leafValues></_>
    <_>
      <internalNodes>
        0 -1 235386 828985592 -201962276 1376673216 1835361237
        -1848710422 -2012577760 -1790444757 1367425511</internalNodes>
      <leafValues>
        -4.1063272953033447e-01 4.3619224429130554e-01</leafValues></_>
    <_>
      <internalNodes>
        0 -1 147111 -214183286 -275193150 18903282 -796058864
        -2136583636 47320784 271811718 -759660362</internalNodes>
      <leafValues>
        -4.0823137760162354e-01 4.5778524875640869e-01</leafValues></_>
    <_>
      <internalNodes>
        0 -1 184479 -1106716755 2145108441 1501821295 -28665379
        -91641097 -140787304 -7663897 1133040301</internalNodes>
      <leafValues>
        -4.6853438019752502e-01 3.8604423403739929e-01</leafValues></_></weakClassifiers></stage1>
</opencv_storage>
