<?xml version="1.0"?>
<opencv_storage>
<stage12>
  <maxWeakCount>15</maxWeakCount>
  <stageThreshold>-1.5275303125381470e+00</stageThreshold>
  <weakClassifiers>
    <_>
      <internalNodes>
        0 -1 55018 1103417746 -786623336 -2063248976 -980070384
        268436114 -1825963871 16876247 320553171</internalNodes>
      <leafValues>
        -5.5763691663742065e-01 1.2973484396934509e-01</leafValues></_>
    <_>
      <internalNodes>
        0 -1 115710 -1789444641 -737829650 -1656206865 -1622175479
        -1400205085 847904936 -120865278 -1380246849</internalNodes>
      <leafValues>
        -4.0424391627311707e-01 2.6240444183349609e-01</leafValues></_>
    <_>
      <internalNodes>
        0 -1 586184 -143926158 -111435636 -29303093 353347678
        -1540949766 -1563640594 -636420258 -128450849</internalNodes>
      <leafValues>
        -2.4388088285923004e-01 4.6546983718872070e-01</leafValues></_>
    <_>
      <internalNodes>
        0 -1 317879 -1258278415 -1806335475 520099167 -1860857697
        -1860519274 -2144694264 -368517201 151537880</internalNodes>
      <leafValues>
        -3.2735779881477356e-01 3.4700968861579895e-01</leafValues></_>
    <_>
      <internalNodes>
        0 -1 84442 -26486654 -1065217648 1346387984 549666962 973219873
        131232 134365315 321601635</internalNodes>
      <leafValues>
        -3.3988386392593384e-01 3.6526787281036377e-01</leafValues></_>
    <_>
      <internalNodes>
        0 -1 26182 801157624 1108331079 1233371171 -1488322489
        -1285999735 -397467517 1666963115 1615023651</internalNodes>
      <leafValues>
        -6.5061116218566895e-01 2.0091420412063599e-01</leafValues></_>
    <_>
      <internalNodes>
        0 -1 2618 -1659942846 724224546 1148117200 1581360838
        -1989491062 43277624 379130322 -1689550441</internalNodes>
      <leafValues>
        -3.2622873783111572e-01 3.6864805221557617e-01</leafValues></_>
    <_>
      <internalNodes>
        0 -1 603044 -624244482 1984381128 1375753428 1344487639
        556412160 138936470 -1602039150 1381461171</internalNodes>
      <leafValues>
        -4.5896205306053162e-01 2.2745332121849060e-01</leafValues></_>
    <_>
      <internalNodes>
        0 -1 47 -684568366 -1751184720 1441545427 -1827325039 -778252678
        -645442204 -2075761455 -8657453</internalNodes>
      <leafValues>
        -2.7400967478752136e-01 4.1295498609542847e-01</leafValues></_>
    <_>
      <internalNodes>
        0 -1 89699 -480657214 -83685129 1477477459 4899411 -134215676
        -2010512886 -2147229253 2065262296</internalNodes>
      <leafValues>
        -3.9632639288902283e-01 3.0831426382064819e-01</leafValues></_>
    <_>
      <internalNodes>
        0 -1 550585 1071979162 -248890671 1061060434 1360017336
        -386493046 -1737031978 1731981193 -2009739913</internalNodes>
      <leafValues>
        -2.8514882922172546e-01 3.7728643417358398e-01</leafValues></_>
    <_>
      <internalNodes>
        0 -1 370603 2037564694 348885064 -384219581 1142509601
        -2004295301 -186597376 42033867 141398903</internalNodes>
      <leafValues>
        -4.3181812763214111e-01 2.4287046492099762e-01</leafValues></_>
    <_>
      <internalNodes>
        0 -1 87182 177747398 -576765556 68179213 1276199039 -939327038
        -1339850085 1258795543 1730724569</internalNodes>
      <leafValues>
        -4.2280429601669312e-01 2.5701862573623657e-01</leafValues></_>
    <_>
      <internalNodes>
        0 -1 647850 2130434298 -322271520 -1938428415 -805086286
        -1932423610 -1488869904 479416305 -119540069</internalNodes>
      <leafValues>
        -2.4516586959362030e-01 4.7111037373542786e-01</leafValues></_>
    <_>
      <internalNodes>
        0 -1 121133 -1076579396 -1692949479 -2080302072 -1513765429
        -460320432 -2096918518 -714372153 537833481</internalNodes>
      <leafValues>
        -4.7187662124633789e-01 2.5119552016258240e-01</leafValues></_></weakClassifiers></stage12>
</opencv_storage>
