<?xml version="1.0"?>
<opencv_storage>
<stage11>
  <maxWeakCount>13</maxWeakCount>
  <stageThreshold>-1.3524519205093384e+00</stageThreshold>
  <weakClassifiers>
    <_>
      <internalNodes>
        0 -1 220135 -792661864 -111589248 285331797 1432293457
        -1879033654 135282728 1073785483 8619007</internalNodes>
      <leafValues>
        -5.0101184844970703e-01 2.0700366795063019e-01</leafValues></_>
    <_>
      <internalNodes>
        0 -1 574331 469039100 -179208056 1361281043 -838664119
        1913333005 -1173389173 1896239650 -657505537</internalNodes>
      <leafValues>
        -6.8260818719863892e-01 1.7210288345813751e-01</leafValues></_>
    <_>
      <internalNodes>
        0 -1 76361 -105918286 -357620503 982841553 1494183384
        -1739139446 118895141 270652099 -742707013</internalNodes>
      <leafValues>
        -2.8268870711326599e-01 4.2836764454841614e-01</leafValues></_>
    <_>
      <internalNodes>
        0 -1 513896 1047539313 1400633912 -738815143 2068840373
        -42467845 1760755574 -1502290737 -1723051879</internalNodes>
      <leafValues>
        -3.3622899651527405e-01 3.5331177711486816e-01</leafValues></_>
    <_>
      <internalNodes>
        0 -1 515001 -804273952 -2037675890 536887457 1133183495
        -248343678 537985176 -2147355693 92954493</internalNodes>
      <leafValues>
        -5.0534129142761230e-01 2.3608928918838501e-01</leafValues></_>
    <_>
      <internalNodes>
        0 -1 43035 -101821464 -1161045185 134676739 975692865 1326148048
        -2113302205 315621387 -567019969</internalNodes>
      <leafValues>
        -4.9268338084220886e-01 2.4553151428699493e-01</leafValues></_>
    <_>
      <internalNodes>
        0 -1 640741 -100937574 -238825760 580522003 -141583602
        -735386450 -1570800684 -333910113 -544714823</internalNodes>
      <leafValues>
        -2.3154632747173309e-01 5.7112187147140503e-01</leafValues></_>
    <_>
      <internalNodes>
        0 -1 16454 1576912063 2044190655 -22103378 -442321282 -991753197
        2003730307 1928178923 1902624851</internalNodes>
      <leafValues>
        -3.0160844326019287e-01 4.1949933767318726e-01</leafValues></_>
    <_>
      <internalNodes>
        0 -1 202827 728689171 -252072068 1106145213 2069179115
        -449153797 -1506574530 -673851681 -1148707368</internalNodes>
      <leafValues>
        -2.7252724766731262e-01 4.1351962089538574e-01</leafValues></_>
    <_>
      <internalNodes>
        0 -1 585596 1422244090 103318434 -680618118 -848863450
        -285366053 -1979980918 -468191501 1264441551</internalNodes>
      <leafValues>
        -3.1891310214996338e-01 3.6405840516090393e-01</leafValues></_>
    <_>
      <internalNodes>
        0 -1 647990 -236268374 -1622227464 -1096100043 -1080614222
        -1853978942 -1307105480 -1486646309 -73813097</internalNodes>
      <leafValues>
        -2.0942756533622742e-01 5.3651160001754761e-01</leafValues></_>
    <_>
      <internalNodes>
        0 -1 14206 709833566 -975830970 -1794418486 244289612 -762712012
        -1466957685 50569879 1604881016</internalNodes>
      <leafValues>
        -4.7762200236320496e-01 2.5730186700820923e-01</leafValues></_>
    <_>
      <internalNodes>
        0 -1 155982 -245902464 -670986240 285330934 -1051097595
        -109051904 -670562272 1493432970 442224650</internalNodes>
      <leafValues>
        -3.8452753424644470e-01 2.9431694746017456e-01</leafValues></_></weakClassifiers></stage11>
</opencv_storage>
