<?xml version="1.0"?>
<opencv_storage>
<stage6>
  <maxWeakCount>12</maxWeakCount>
  <stageThreshold>-1.3676316738128662e+00</stageThreshold>
  <weakClassifiers>
    <_>
      <internalNodes>
        0 -1 166027 458313981 -577040167 16980957 -551589673 -1195798853
        -1079508863 -1423922501 -1148478981</internalNodes>
      <leafValues>
        -4.7202166914939880e-01 4.2523363232612610e-01</leafValues></_>
    <_>
      <internalNodes>
        0 -1 1781 -170852868 1466925893 -1538305573 1665921922 985674234
        -113047485 1998682575 -269009685</internalNodes>
      <leafValues>
        -6.2319546937942505e-01 2.4218496680259705e-01</leafValues></_>
    <_>
      <internalNodes>
        0 -1 567237 -632229678 1078362250 1073795729 1427752455
        -1073110902 42008712 808494235 289064089</internalNodes>
      <leafValues>
        -4.2819914221763611e-01 3.2582920789718628e-01</leafValues></_>
    <_>
      <internalNodes>
        0 -1 211 -297078608 -1992077054 -1321020400 1863271872 404875664
        -1525476862 1778569589 1003483859</internalNodes>
      <leafValues>
        -4.4111251831054688e-01 3.2537284493446350e-01</leafValues></_>
    <_>
      <internalNodes>
        0 -1 529821 491788504 -50233190 1963480 1528123806 184586426
        1510129792 -553334086 -1684764280</internalNodes>
      <leafValues>
        -4.4212535023689270e-01 3.1434285640716553e-01</leafValues></_>
    <_>
      <internalNodes>
        0 -1 452966 -146211600 -586998501 -561830525 -1337229031
        -1973464533 -486301629 -1849476597 -997483245</internalNodes>
      <leafValues>
        -4.8513016104698181e-01 2.7449434995651245e-01</leafValues></_>
    <_>
      <internalNodes>
        0 -1 7562 -108010416 295006320 315154451 -1859840977 -52513654
        36895538 -1785283343 -776075879</internalNodes>
      <leafValues>
        -3.0648353695869446e-01 4.7638711333274841e-01</leafValues></_>
    <_>
      <internalNodes>
        0 -1 611149 -204673096 -1397182576 1073528818 -877003792
        2105275634 -1920995594 -788605 1334430858</internalNodes>
      <leafValues>
        -2.9579439759254456e-01 4.2397585511207581e-01</leafValues></_>
    <_>
      <internalNodes>
        0 -1 151503 991785192 -169897488 67227659 -1266167314
        -1424444704 -1132330990 -2097085502 520165801</internalNodes>
      <leafValues>
        -4.2661106586456299e-01 2.7903658151626587e-01</leafValues></_>
    <_>
      <internalNodes>
        0 -1 202321 587739314 1146568784 1359153373 1993162752
        1074438222 -896909296 1140894443 -620230504</internalNodes>
      <leafValues>
        -4.3978947401046753e-01 2.8932282328605652e-01</leafValues></_>
    <_>
      <internalNodes>
        0 -1 574645 1507770394 -712178032 104477 1276186695 -1189955404
        1353322504 -1527891106 37218911</internalNodes>
      <leafValues>
        -3.7774488329887390e-01 3.3154928684234619e-01</leafValues></_>
    <_>
      <internalNodes>
        0 -1 18308 1535890002 -902323320 -1954934893 1348742896
        -828538822 -1934119508 -533062466 -1324768069</internalNodes>
      <leafValues>
        -3.0690768361091614e-01 4.1467237472534180e-01</leafValues></_></weakClassifiers></stage6>
</opencv_storage>
