<?xml version="1.0"?>
<opencv_storage>
<stage14>
  <maxWeakCount>14</maxWeakCount>
  <stageThreshold>-1.0500086545944214e+00</stageThreshold>
  <weakClassifiers>
    <_>
      <internalNodes>
        0 -1 65508 292360934 -982893 -268185251 -29244921 -1341589325
        -1433913212 1803620571 2107082707</internalNodes>
      <leafValues>
        -5.5074626207351685e-01 1.1018518358469009e-01</leafValues></_>
    <_>
      <internalNodes>
        0 -1 574127 -651637544 1343952912 -54210857 1345389215
        -1910618418 411472396 -1968811525 -1678011141</internalNodes>
      <leafValues>
        -2.7508157491683960e-01 3.6482360959053040e-01</leafValues></_>
    <_>
      <internalNodes>
        0 -1 145238 -758146886 2000118512 67313497 1733138227
        -2098552630 -2146400230 1499120579 1401678567</internalNodes>
      <leafValues>
        -2.7810770273208618e-01 3.4376952052116394e-01</leafValues></_>
    <_>
      <internalNodes>
        0 -1 242781 -1084614419 -1724445021 -1523122109 -816337111
        -2004721486 -1498233595 -1097928534 -626204420</internalNodes>
      <leafValues>
        -4.7803393006324768e-01 1.9969609379768372e-01</leafValues></_>
    <_>
      <internalNodes>
        0 -1 611527 -607794550 -2105114486 -1961815141 -1014935550
        948489970 -1974975872 823370706 32358601</internalNodes>
      <leafValues>
        -3.9060580730438232e-01 2.6006919145584106e-01</leafValues></_>
    <_>
      <internalNodes>
        0 -1 497905 -117517744 270967426 1013644504 1431320656
        1958134522 1515666980 -1978624853 1045675899</internalNodes>
      <leafValues>
        -2.8254231810569763e-01 3.3487674593925476e-01</leafValues></_>
    <_>
      <internalNodes>
        0 -1 647780 1896728194 -445688024 687115818 1285389440
        -1535461616 4742512 -1910444479 -434149697</internalNodes>
      <leafValues>
        -2.9861417412757874e-01 3.3213761448860168e-01</leafValues></_>
    <_>
      <internalNodes>
        0 -1 115980 890264029 -1173317438 -821019592 1192958019
        -744390047 -1850277856 1361705632 -792397625</internalNodes>
      <leafValues>
        -3.6298665404319763e-01 2.6123499870300293e-01</leafValues></_>
    <_>
      <internalNodes>
        0 -1 12915 71606802 -791011184 554193594 -817048930 268513738
        1879049224 -380032125 759528387</internalNodes>
      <leafValues>
        -4.4802564382553101e-01 2.3982527852058411e-01</leafValues></_>
    <_>
      <internalNodes>
        0 -1 631000 -59844527 -8739650 260017744 1060878801 -26698811
        325876858 1019150066 -664611845</internalNodes>
      <leafValues>
        -2.4382647871971130e-01 4.3521559238433838e-01</leafValues></_>
    <_>
      <internalNodes>
        0 -1 37334 1918810007 -687673216 1213159313 130798451 1627869570
        2050869796 604173506 1544639187</internalNodes>
      <leafValues>
        -3.7146306037902832e-01 2.6908361911773682e-01</leafValues></_>
    <_>
      <internalNodes>
        0 -1 324511 812244442 -566342226 1331026411 1491037209
        -562257526 -1733775450 440872983 -1416028417</internalNodes>
      <leafValues>
        -2.5938674807548523e-01 4.0308815240859985e-01</leafValues></_>
    <_>
      <internalNodes>
        0 -1 548045 -805058344 -745934720 -1026955014 -238201907
        -1730805528 -1793518068 270774459 -552892681</internalNodes>
      <leafValues>
        -1.7153760790824890e-01 5.3500604629516602e-01</leafValues></_>
    <_>
      <internalNodes>
        0 -1 488490 1544022602 1111656587 1426997429 1201754443
        -524265277 1208683587 -175411885 285539324</internalNodes>
      <leafValues>
        -4.8420411348342896e-01 2.1141773462295532e-01</leafValues></_></weakClassifiers></stage14>
</opencv_storage>
