<?xml version="1.0"?>
<opencv_storage>
<stage13>
  <maxWeakCount>14</maxWeakCount>
  <stageThreshold>-1.2389466762542725e+00</stageThreshold>
  <weakClassifiers>
    <_>
      <internalNodes>
        0 -1 55226 -621741826 1469591628 89145 2030915793 -114623762
        1342185634 1350695935 122388975</internalNodes>
      <leafValues>
        -4.7411763668060303e-01 1.7000000178813934e-01</leafValues></_>
    <_>
      <internalNodes>
        0 -1 511676 422197499 -774041574 419962335 1600065770
        -1301638982 -14491584 336130746 -1137032836</internalNodes>
      <leafValues>
        -3.2687619328498840e-01 3.2345005869865417e-01</leafValues></_>
    <_>
      <internalNodes>
        0 -1 193280 -225775390 -1145369472 -2012011504 1396383873
        -838696546 172900724 806646498 -743472453</internalNodes>
      <leafValues>
        -2.3319584131240845e-01 4.6543869376182556e-01</leafValues></_>
    <_>
      <internalNodes>
        0 -1 606837 -654053222 -2136044408 1091687632 1224982923
        -1742492456 -1165784438 327880835 2132080569</internalNodes>
      <leafValues>
        -3.7502521276473999e-01 2.7183836698532104e-01</leafValues></_>
    <_>
      <internalNodes>
        0 -1 18409 -102376320 -107616028 1650945630 1981273181
        -217808318 -248254260 1177745067 -1145092265</internalNodes>
      <leafValues>
        -2.6073488593101501e-01 3.8195493817329407e-01</leafValues></_>
    <_>
      <internalNodes>
        0 -1 479236 -73280719 -1778933562 -1999512233 495389195
        -552822154 712161824 415415574 102396531</internalNodes>
      <leafValues>
        -3.9683374762535095e-01 2.4956367909908295e-01</leafValues></_>
    <_>
      <internalNodes>
        0 -1 317062 -1658960133 406475036 311432671 1091109363
        2049833099 -1568006014 -1976488965 -1691571576</internalNodes>
      <leafValues>
        -3.9497563242912292e-01 2.7714997529983521e-01</leafValues></_>
    <_>
      <internalNodes>
        0 -1 84443 -560995637 -1027308479 2025823396 1340692029
        -321217054 -1637696139 -1223690301 -748696601</internalNodes>
      <leafValues>
        -1.8948051333427429e-01 6.8722671270370483e-01</leafValues></_>
    <_>
      <internalNodes>
        0 -1 124132 -402123372 -1887305520 -2146417424 205848721
        1091053918 218890368 285243123 1101742563</internalNodes>
      <leafValues>
        -5.1200276613235474e-01 2.2257189452648163e-01</leafValues></_>
    <_>
      <internalNodes>
        0 -1 647917 1932253338 -272936238 1466955922 2038583227
        -1652974458 -207261888 1415695062 -73538829</internalNodes>
      <leafValues>
        -2.5279042124748230e-01 4.0878582000732422e-01</leafValues></_>
    <_>
      <internalNodes>
        0 -1 221005 935222679 -186695585 -798963737 1631830081
        -913335606 -2000083818 -1006292029 327332379</internalNodes>
      <leafValues>
        -4.6623018383979797e-01 2.0708681643009186e-01</leafValues></_>
    <_>
      <internalNodes>
        0 -1 3294 2001596922 42042770 285439634 1618331075 -1257733584
        12658822 1459684246 1091695399</internalNodes>
      <leafValues>
        -5.0094890594482422e-01 2.3122520744800568e-01</leafValues></_>
    <_>
      <internalNodes>
        0 -1 560932 -72480598 -579368406 886729052 1903778437 556437643
        -631571219 354947231 -653469492</internalNodes>
      <leafValues>
        -2.5597426295280457e-01 4.2220979928970337e-01</leafValues></_>
    <_>
      <internalNodes>
        0 -1 55221 -12820600 -999911393 11207715 1099141507 484343670
        -578558960 -1599764374 588073807</internalNodes>
      <leafValues>
        -7.0780014991760254e-01 1.6916035115718842e-01</leafValues></_></weakClassifiers></stage13>
</opencv_storage>
